{
  "model_type": "humanizer",
  "version": "1.0",
  "input_size": 20,
  "output_size": 1,
  "layers": [
    {
      "type": "dense",
      "shape": [
        20,
        32
      ],
      "weights": [
        -0.738268256187439,
        0.0760110467672348,
        -1.6286790370941162,
        0.29150456190109253,
        -0.5650610327720642,
        -0.008870436809957027,
        0.8114176988601685,
        -0.10224422067403793,
        -1.292427659034729,
        -0.8062487840652466,
        0.4127903878688812,
        0.16182737052440643,
        -0.8115208745002747,
        0.5767841935157776,
        -0.6508826017379761,
        -0.41483578085899353,
        -0.28249093890190125,
        -0.2839045822620392,
        0.6490690112113953,
        0.5051482915878296,
        -1.081809163093567,
        0.10964450985193253,
        -1.7551339864730835,
        0.19944719970226288,
        0.28685882687568665,
        -0.16991949081420898,
        0.16501450538635254,
        0.3069501221179962,
        0.05774165317416191,
        0.22597888112068176,
        -0.27861520648002625,
        -0.3584825098514557,
        -0.31184953451156616,
        0.1814565807580948,
        0.10638009011745453,
        -1.1706807613372803,
        0.8375667333602905,
        0.6830003261566162,
        -0.48983028531074524,
        0.3335933983325958,
        0.2860028147697449,
        -0.13948839902877808,
        0.29903507232666016,
        0.09606875479221344,
        -0.27124714851379395,
        0.04384356364607811,
        -0.2570629119873047,
        0.09749075025320053,
        -0.5587155222892761,
        0.4157339930534363,
        -0.15646283328533173,
        -0.33789002895355225,
        0.4060247540473938,
        -0.6204537153244019,
        0.21768681704998016,
        0.09470754861831665,
        -1.6917985677719116,
        -0.29587727785110474,
        0.07044311612844467,
        -0.9792006611824036,
        -0.2596592605113983,
        -0.46787333488464355,
        0.121781125664711,
        -1.1731879711151123,
        0.294196754693985,
        0.29866263270378113,
        -1.3542649745941162,
        0.740989089012146,
        -1.2678840160369873,
        0.107632115483284,
        -0.5386338829994202,
        0.24796180427074432,
        0.2943069338798523,
        0.4623919725418091,
        0.010750322602689266,
        -0.18882642686367035,
        -0.07598335295915604,
        0.5762134194374084,
        -0.17029514908790588,
        -1.119468092918396,
        -0.011144592426717281,
        -0.7182543873786926,
        -0.23147673904895782,
        -1.6694226264953613,
        -0.0885247141122818,
        -0.31329867243766785,
        0.597621500492096,
        0.4193865656852722,
        0.12094969302415848,
        0.8536409735679626,
        0.19738467037677765,
        0.6219562888145447,
        0.3012109398841858,
        0.08486133813858032,
        -0.02767050638794899,
        0.10187002271413803,
        0.3441382944583893,
        0.20778127014636993,
        -0.5334234237670898,
        -0.7046374678611755,
        -1.3216466903686523,
        -0.42140334844589233,
        -0.5203648805618286,
        0.25289061665534973,
        0.29845428466796875,
        -0.631408154964447,
        0.18563386797904968,
        0.3060176968574524,
        -0.14271210134029388,
        -0.13380399346351624,
        -0.5260373950004578,
        0.09874662756919861,
        -0.17433175444602966,
        0.8153684735298157,
        0.27997201681137085,
        -0.6862977147102356,
        0.38183242082595825,
        0.950183629989624,
        0.07576396316289902,
        0.05668414384126663,
        0.35410937666893005,
        -0.08581363409757614,
        0.2567342221736908,
        0.7214756608009338,
        -0.8372790217399597,
        0.10521536320447922,
        0.4207683205604553,
        0.0030216528102755547,
        -1.6059541702270508,
        -1.0246778726577759,
        -0.21635709702968597,
        -1.2285822629928589,
        0.41887980699539185,
        -1.1191953420639038,
        -1.1706682443618774,
        -0.41698893904685974,
        -0.782170295715332,
        -0.1689930558204651,
        -0.8948937654495239,
        -1.212768316268921,
        0.7484920024871826,
        0.2681649625301361,
        0.16394966840744019,
        0.25628069043159485,
        -0.018866581842303276,
        -0.09134791791439056,
        -0.29656529426574707,
        -1.282272458076477,
        0.14047400653362274,
        0.14697302877902985,
        -0.6703051924705505,
        -0.39450305700302124,
        0.2603236436843872,
        0.3599379062652588,
        -1.0845084190368652,
        -0.12000405043363571,
        -0.7094939947128296,
        -0.13964201509952545,
        0.5585301518440247,
        0.2883192002773285,
        0.6772629618644714,
        0.3097113072872162,
        -1.1540149450302124,
        -0.7315043210983276,
        -1.0406230688095093,
        -0.8653301000595093,
        -0.3304309546947479,
        0.3631156086921692,
        -0.08596159517765045,
        -0.03943096846342087,
        -0.7459614276885986,
        -0.5507924556732178,
        0.6497383713722229,
        0.07802977412939072,
        1.2768186330795288,
        0.12359552830457687,
        -0.1360810250043869,
        0.5808084607124329,
        0.5353649854660034,
        -0.018927903845906258,
        0.037203289568424225,
        -0.43500426411628723,
        0.6514749526977539,
        0.16755028069019318,
        -0.33970218896865845,
        -0.8289005756378174,
        -0.20485281944274902,
        0.0791781023144722,
        -0.47295066714286804,
        0.25648340582847595,
        0.09183385223150253,
        -0.04851805791258812,
        1.7963148355484009,
        -9.845309257507324,
        1.5744487047195435,
        -0.3114773631095886,
        -0.26012861728668213,
        -0.09003216028213501,
        -0.5969465970993042,
        -1.488897442817688,
        -1.3730342388153076,
        0.6433411240577698,
        1.4331588745117188,
        -0.007144453935325146,
        -0.009805558249354362,
        -0.14719051122665405,
        0.41303643584251404,
        1.956402063369751,
        0.8812413811683655,
        0.7381054162979126,
        -1.0095460414886475,
        -0.3815717399120331,
        -1.8030723333358765,
        0.6826302409172058,
        0.6450837850570679,
        -17.317981719970703,
        0.20257064700126648,
        -0.05481943115592003,
        -0.35515305399894714,
        0.07655195146799088,
        0.04715314507484436,
        -0.15584562718868256,
        -3.2684760093688965,
        0.4197731912136078,
        -0.2598229646682739,
        0.020210275426506996,
        0.8863434195518494,
        -0.8303712606430054,
        -1.186716079711914,
        -1.3258451223373413,
        -0.5686051845550537,
        0.25086647272109985,
        -0.6597838997840881,
        0.4613015353679657,
        -0.6576954126358032,
        0.9121619462966919,
        -0.8553647994995117,
        -2.068779468536377,
        -0.08045081794261932,
        0.31071048974990845,
        0.5383769869804382,
        -0.7526524066925049,
        0.855739951133728,
        2.516653299331665,
        0.5018638372421265,
        -0.6613664031028748,
        0.6070592403411865,
        -0.04196573421359062,
        -1.6126927137374878,
        -1.8072216510772705,
        0.40583500266075134,
        -1.1075596809387207,
        1.8167312145233154,
        0.3981352150440216,
        0.1868111789226532,
        0.9876136183738708,
        0.06715478748083115,
        0.016458498314023018,
        -0.08979832381010056,
        -0.3554709553718567,
        -0.13379082083702087,
        0.5862254500389099,
        1.1886614561080933,
        -0.3103777766227722,
        -0.21708352863788605,
        0.38809284567832947,
        -0.25639790296554565,
        -1.3465076684951782,
        -1.4308022260665894,
        0.45227712392807007,
        -0.5319356322288513,
        -0.4178006649017334,
        -0.027236497029662132,
        -0.31302309036254883,
        0.3571421802043915,
        -0.1942712813615799,
        -0.006736042909324169,
        -0.2075321227312088,
        -0.07312706112861633,
        0.0276639461517334,
        0.4303148686885834,
        0.12595929205417633,
        -0.4743574261665344,
        0.5393821597099304,
        0.10920657962560654,
        -0.7098956108093262,
        0.6058347225189209,
        0.22508957982063293,
        0.20485179126262665,
        0.4033541977405548,
        -0.9249992370605469,
        0.11158911883831024,
        -0.2944392263889313,
        -1.0538215637207031,
        0.1439187228679657,
        0.6235150098800659,
        0.7029737234115601,
        -0.12294381111860275,
        -0.3290935456752777,
        -0.09556303173303604,
        -0.23608165979385376,
        -0.38257887959480286,
        -0.1452563852071762,
        0.15801921486854553,
        0.02834361419081688,
        -0.13543149828910828,
        0.10101650655269623,
        0.19245420396327972,
        0.6982698440551758,
        -0.3426930606365204,
        -0.743933379650116,
        0.753314197063446,
        -0.22170422971248627,
        0.20214733481407166,
        0.5559484958648682,
        0.7463741302490234,
        -0.13587459921836853,
        0.12283419072628021,
        0.17094014585018158,
        0.07682681083679199,
        -0.38087931275367737,
        -0.9096672534942627,
        0.018126117065548897,
        0.2772722840309143,
        0.7416427731513977,
        0.4732878506183624,
        0.7957158088684082,
        0.2053370624780655,
        0.8121636509895325,
        0.42492902278900146,
        -0.23820114135742188,
        0.48934319615364075,
        0.3006373345851898,
        0.25951486825942993,
        0.28773033618927,
        0.12041841447353363,
        -0.4000912010669708,
        -1.031741976737976,
        0.14076541364192963,
        -0.3105841875076294,
        -0.1617497056722641,
        0.20083977282047272,
        0.11634459346532822,
        -0.16166190803050995,
        -0.5326634645462036,
        -1.4967916011810303,
        -0.7710916996002197,
        -0.07661018520593643,
        -0.2097676545381546,
        -0.35331740975379944,
        0.7412416934967041,
        -0.16649353504180908,
        0.11409309506416321,
        0.22152405977249146,
        -0.08655552566051483,
        -0.4877053499221802,
        -0.3803533613681793,
        0.11915808171033859,
        0.17005863785743713,
        0.03866478055715561,
        -0.45265698432922363,
        -0.587485671043396,
        0.1389208436012268,
        -0.17373497784137726,
        0.48509135842323303,
        0.1729097068309784,
        -0.5375034809112549,
        -0.18498121201992035,
        -0.07253298908472061,
        0.11981361359357834,
        0.3165927231311798,
        -0.16146065294742584,
        -1.3868129253387451,
        0.3337465226650238,
        0.28764018416404724,
        0.6139295697212219,
        0.020481158047914505,
        0.2875251770019531,
        0.9682855010032654,
        -0.5602534413337708,
        0.13977709412574768,
        0.7011563181877136,
        -0.2733278274536133,
        -0.21908362209796906,
        -1.598669409751892,
        0.07697167992591858,
        0.009384470991790295,
        0.7739652991294861,
        -0.3042861223220825,
        -1.1748626232147217,
        -0.3599817454814911,
        -0.3258775472640991,
        0.07612763345241547,
        -0.5741338133811951,
        -0.2715844213962555,
        -0.27234432101249695,
        -1.4303354024887085,
        0.18643800914287567,
        0.5169980525970459,
        0.06363864988088608,
        0.16019786894321442,
        0.3200199007987976,
        -0.6280686855316162,
        -0.015955550596117973,
        -0.4370023310184479,
        0.11487101018428802,
        -0.5279066562652588,
        -0.08426915109157562,
        0.21124261617660522,
        0.25471630692481995,
        -0.34072399139404297,
        0.038158319890499115,
        0.17907306551933289,
        -0.544812798500061,
        0.7827193737030029,
        -0.3008357882499695,
        -0.08375509828329086,
        0.2829529643058777,
        0.11644959449768066,
        0.2941078543663025,
        0.8189053535461426,
        -0.37705323100090027,
        0.09760665148496628,
        0.2187780886888504,
        -0.469914048910141,
        0.5920745730400085,
        -0.11039958894252777,
        -0.31994009017944336,
        0.4236519932746887,
        -0.011051987297832966,
        0.11031389981508255,
        -0.2154611051082611,
        -0.2741250693798065,
        -0.08938673883676529,
        -0.2561858594417572,
        0.13849951326847076,
        -1.1436997652053833,
        0.0033742464147508144,
        0.05276443809270859,
        0.4460470378398895,
        -0.4141789376735687,
        0.2643220126628876,
        -0.5059919357299805,
        0.08475205302238464,
        -1.3948866128921509,
        -0.17536532878875732,
        0.5365591645240784,
        0.5937207937240601,
        -0.03612330183386803,
        -0.8748319745063782,
        -0.5671724677085876,
        0.14593376219272614,
        -0.568264901638031,
        -0.0012438071426004171,
        0.03526183217763901,
        0.09344349801540375,
        0.17978334426879883,
        0.2860020697116852,
        0.16877655684947968,
        -0.2579537034034729,
        -0.3753226399421692,
        0.3846771717071533,
        -1.164229154586792,
        -0.27379754185676575,
        0.0008595762774348259,
        -1.0107238292694092,
        0.5920146107673645,
        -1.0447152853012085,
        0.049719713628292084,
        -0.4680975675582886,
        -0.2773154377937317,
        0.1815548688173294,
        -0.053721047937870026,
        0.07305518537759781,
        -0.03424723073840141,
        0.045710984617471695,
        -0.008857639506459236,
        -0.3242546617984772,
        -0.8948376774787903,
        0.0027838812675327063,
        -0.2835630178451538,
        0.2337198704481125,
        -0.15905025601387024,
        -0.22420760989189148,
        0.5432495474815369,
        0.11412697285413742,
        -0.34098973870277405,
        0.008447159081697464,
        -0.873478353023529,
        -0.4584256410598755,
        0.11214114725589752,
        -0.5853757858276367,
        -0.9041071534156799,
        0.2881423532962799,
        -1.1173312664031982,
        0.2895621955394745,
        0.018230412155389786,
        0.504688560962677,
        -0.32351619005203247,
        0.09310624748468399,
        0.41935697197914124,
        -0.09736603498458862,
        0.7483112215995789,
        -0.127013698220253,
        0.3034992218017578,
        0.1245044693350792,
        -0.7806660532951355,
        0.2820834219455719,
        0.013094140216708183,
        0.21834991872310638,
        0.13313165307044983,
        0.6347612142562866,
        -0.008633976802229881,
        0.2203134000301361,
        -0.7094045877456665,
        -0.4902859032154083,
        0.12532716989517212,
        0.16821768879890442,
        -0.2786060869693756,
        0.25477123260498047,
        -0.13551588356494904,
        -1.3064501285552979,
        0.22172841429710388,
        0.11819328367710114,
        0.43657156825065613,
        0.275682270526886,
        -0.01841556280851364,
        -0.1934484839439392,
        -0.9895617961883545,
        -1.5923534631729126,
        0.15857239067554474,
        -0.004955967888236046,
        -0.2063901424407959,
        0.5264683365821838,
        0.005730010569095612,
        -0.07987107336521149,
        -0.07433663308620453,
        -0.9293200969696045,
        -0.2940845787525177,
        0.027260445058345795,
        0.05061788856983185,
        0.8566051721572876,
        0.1401047557592392,
        0.05389631167054176,
        0.3970068395137787,
        0.16571539640426636,
        -0.22701102495193481,
        -0.506416380405426,
        -0.850119411945343,
        0.16319534182548523,
        0.32688382267951965,
        1.11593496799469,
        0.3059716820716858,
        0.23925836384296417,
        0.236125648021698,
        0.15861237049102783,
        0.914109468460083,
        0.2162420153617859,
        0.3605448305606842,
        -0.16798844933509827,
        0.3316038250923157,
        0.1561499536037445,
        -0.07348738610744476,
        0.12491174042224884,
        0.11740376055240631,
        -1.5392786264419556,
        0.49392345547676086,
        -0.21036912500858307,
        -0.013640256598591805,
        0.03010246902704239,
        -1.422027349472046,
        -0.4354499578475952,
        0.0415516160428524,
        -1.2856183052062988,
        -0.3782721161842346,
        -0.6817114353179932,
        -0.4162895083427429,
        0.2442055344581604,
        -0.06162191182374954,
        0.4842226207256317,
        0.14174513518810272,
        0.4203011393547058,
        -0.08137919008731842,
        0.23677094280719757,
        0.22604157030582428,
        0.17125403881072998,
        0.1749880313873291,
        0.27499890327453613,
        -0.5741061568260193,
        -0.28770387172698975,
        0.3611019551753998,
        -0.22974815964698792,
        0.4316916763782501,
        0.003967884462326765,
        -0.3512645959854126,
        0.10418633371591568,
        0.06557012349367142,
        0.5379699468612671,
        -0.535168468952179,
        -0.29135993123054504,
        0.12519581615924835,
        0.2974511682987213,
        0.02660820446908474,
        0.2504095435142517,
        0.0649547427892685,
        -0.4830297529697418,
        0.18220217525959015,
        -0.5724050998687744,
        0.1965518742799759,
        0.19838272035121918,
        -0.11068956553936005,
        -0.029188217595219612,
        0.11987164616584778,
        0.05422582849860191,
        0.2045377939939499,
        0.5566937923431396,
        0.1600024700164795,
        -1.516821026802063,
        -0.6292061805725098,
        -0.3123296797275543,
        -0.005428858567029238,
        0.6116992831230164,
        -0.5464879870414734,
        0.1603122353553772,
        -0.19464938342571259,
        0.13657891750335693,
        0.2850787341594696,
        -0.11824222654104233,
        0.26052364706993103,
        0.6198792457580566,
        -0.08837353438138962,
        -0.19078004360198975,
        0.9327419996261597,
        -0.7481903433799744,
        0.5424770712852478,
        -0.44532325863838196,
        0.012686066329479218,
        -0.041180044412612915,
        0.00795821100473404,
        0.17570844292640686
      ],
      "bias": [
        -0.5649940967559814,
        0.23306332528591156,
        -0.7400456070899963,
        -0.1212652400135994,
        0.050328705459833145,
        0.10451909899711609,
        -0.3233429491519928,
        0.35430145263671875,
        0.21649686992168427,
        -0.6171532869338989,
        0.12826873362064362,
        -0.10930820554494858,
        -0.31459933519363403,
        0.42792415618896484,
        -0.23746570944786072,
        -0.18735915422439575,
        -0.39185261726379395,
        0.09305661916732788,
        -0.1301543265581131,
        -0.6969045400619507,
        0.07213380187749863,
        -0.0855562761425972,
        -0.4522746801376343,
        0.09178276360034943,
        0.3573989272117615,
        0.46086108684539795,
        0.05067801848053932,
        0.22086036205291748,
        -0.4398341774940491,
        0.011987769044935703,
        0.13704781234264374,
        -0.2781130373477936
      ]
    },
    {
      "type": "relu"
    },
    {
      "type": "dense",
      "shape": [
        32,
        32
      ],
      "weights": [
        -0.23676617443561554,
        0.023681048303842545,
        -3.6777539253234863,
        -2.089526653289795,
        0.4715707302093506,
        -0.7870626449584961,
        -0.08906751126050949,
        0.011244036257266998,
        -0.1643725335597992,
        0.07579706609249115,
        -0.22038495540618896,
        -0.29667535424232483,
        0.7919796109199524,
        0.6582754850387573,
        -0.41816994547843933,
        0.0006301687099039555,
        0.09594167023897171,
        -0.1811877340078354,
        -0.4830534756183624,
        0.038905397057533264,
        -0.4649396240711212,
        -0.6544532775878906,
        0.2998043894767761,
        0.04492707923054695,
        -3.0697848796844482,
        -3.087902784347534,
        -0.041133441030979156,
        0.4524669647216797,
        0.0006507447687909007,
        -4.703643798828125,
        -0.07003752142190933,
        -1.0126793384552002,
        -0.10783747583627701,
        -0.05376216769218445,
        -0.563193678855896,
        -0.03803417086601257,
        1.806109070777893,
        -1.4338723421096802,
        0.0014089565956965089,
        0.9160698056221008,
        1.1230930089950562,
        0.1325950026512146,
        0.4758758246898651,
        0.21248143911361694,
        -1.9654595851898193,
        -0.10042808949947357,
        3.187689781188965,
        2.911161184310913,
        -5.101258754730225,
        -0.06876204162836075,
        1.2386057376861572,
        0.010922454297542572,
        -4.298452377319336,
        1.281312108039856,
        -0.09800339490175247,
        0.21684139966964722,
        -1.7925580739974976,
        -0.27190735936164856,
        0.056282684206962585,
        -1.9488264322280884,
        -0.15018655359745026,
        -1.0359476804733276,
        1.2884708642959595,
        1.355100393295288,
        -0.4683498740196228,
        -0.14941944181919098,
        -0.9689695835113525,
        -1.6193171739578247,
        -0.947989284992218,
        -4.772504806518555,
        0.15010599792003632,
        -0.40756213665008545,
        -0.5790583491325378,
        -0.9609432220458984,
        -0.2920911908149719,
        -0.08438211679458618,
        -0.4862848222255707,
        -1.962764024734497,
        0.07650674134492874,
        0.4430810213088989,
        0.2283572405576706,
        0.15774168074131012,
        -2.156059503555298,
        0.06060544028878212,
        -0.49070778489112854,
        -0.8029727935791016,
        0.619625449180603,
        -0.012936567887663841,
        -0.18660640716552734,
        -0.3132765293121338,
        0.025056304410099983,
        -2.909625291824341,
        -0.031907517462968826,
        -4.057155609130859,
        0.9079460501670837,
        -4.381978988647461,
        0.036561518907547,
        -0.13599886000156403,
        -0.6628810167312622,
        -0.44570690393447876,
        -0.8709036111831665,
        -0.7089366316795349,
        0.25709807872772217,
        0.556118905544281,
        -0.9794456958770752,
        -2.5181095600128174,
        0.2246524542570114,
        0.11256320774555206,
        -0.11297915130853653,
        -0.270746111869812,
        0.30282318592071533,
        0.3778628408908844,
        0.07084808498620987,
        0.03386780247092247,
        0.25269365310668945,
        -0.08824287354946136,
        -0.2768859565258026,
        -0.48167937994003296,
        -0.4491614103317261,
        -0.22777658700942993,
        -0.6274514198303223,
        0.1310609132051468,
        0.016866855323314667,
        -0.6069432497024536,
        -0.10049619525671005,
        -0.025969482958316803,
        0.07116034626960754,
        -0.7763703465461731,
        -0.24099384248256683,
        -0.02413719892501831,
        -3.0553956031799316,
        -0.47094857692718506,
        -0.37222224473953247,
        -0.9344752430915833,
        -0.7372628450393677,
        0.8532793521881104,
        0.7758805155754089,
        0.5759956240653992,
        -1.1306343078613281,
        -0.18220582604408264,
        -0.3556109666824341,
        -0.5723004937171936,
        -0.2626883387565613,
        -0.26700347661972046,
        -0.35198748111724854,
        -0.21147683262825012,
        -0.09708498418331146,
        -0.015285375528037548,
        -0.5439868569374084,
        -2.2878072261810303,
        -0.9015253186225891,
        -0.014113507233560085,
        -0.8735054731369019,
        -0.2760496735572815,
        0.023389287292957306,
        0.7809206247329712,
        -0.2158822864294052,
        -0.9115049839019775,
        -0.04601212590932846,
        0.14081121981143951,
        -1.452934980392456,
        -0.09410880506038666,
        0.7903571128845215,
        0.4510641098022461,
        0.5731481313705444,
        -0.17730924487113953,
        -0.14705513417720795,
        0.18265245854854584,
        -0.8605773448944092,
        -0.7109150886535645,
        0.503906786441803,
        -0.25578317046165466,
        -0.011186710558831692,
        -0.3052021265029907,
        0.0031708567403256893,
        -2.235172986984253,
        -0.3807564973831177,
        -0.060487695038318634,
        0.16516804695129395,
        0.00933587271720171,
        0.40225958824157715,
        -0.2456521987915039,
        0.03968518599867821,
        -1.086472988128662,
        -0.22145573794841766,
        0.10575800389051437,
        -0.003508229274302721,
        -0.2500910460948944,
        -0.26946374773979187,
        -0.8011954426765442,
        -0.31097081303596497,
        -1.4706166982650757,
        0.05996771529316902,
        0.14141173660755157,
        -1.1192973852157593,
        0.17607462406158447,
        0.7036699652671814,
        0.8225333094596863,
        -0.2776787281036377,
        0.31914767622947693,
        -0.6564173698425293,
        -0.4766819477081299,
        -0.4175848960876465,
        -0.02926439791917801,
        0.8352659344673157,
        -0.9215534329414368,
        0.07018275558948517,
        -1.2010035514831543,
        0.4966072738170624,
        0.2418350726366043,
        0.02989938110113144,
        0.23798371851444244,
        0.8090252876281738,
        -0.4935274124145508,
        1.146942377090454,
        1.0504522323608398,
        -0.15909405052661896,
        0.1225782111287117,
        0.08132047206163406,
        -0.17651186883449554,
        -0.1477389931678772,
        0.15297353267669678,
        0.8706250190734863,
        -0.038575492799282074,
        -0.1810053288936615,
        -0.18001724779605865,
        0.6065022945404053,
        0.006890189368277788,
        0.011590388603508472,
        0.29244446754455566,
        -4.031322479248047,
        -0.3690372705459595,
        -0.1324915587902069,
        -0.46523910760879517,
        -0.37011510133743286,
        0.02488725073635578,
        -3.7683470249176025,
        -2.043231248855591,
        -0.8155681490898132,
        0.41390955448150635,
        0.18178915977478027,
        -0.2771223485469818,
        -0.3445304036140442,
        -0.03882543370127678,
        0.6889274716377258,
        0.06314757466316223,
        -0.5235026478767395,
        -0.2189449965953827,
        -0.1549389809370041,
        -0.4141543507575989,
        0.03373470902442932,
        0.16346819698810577,
        -0.17436139285564423,
        -0.09398601204156876,
        -0.45815935730934143,
        0.09711101651191711,
        -2.0923562049865723,
        -0.008817210793495178,
        -0.4490058422088623,
        1.157394528388977,
        0.5952388048171997,
        -0.07507175952196121,
        0.11717614531517029,
        -0.820434033870697,
        0.19856829941272736,
        -3.8898637294769287,
        -1.5083070993423462,
        -0.07240267097949982,
        0.7108542323112488,
        -2.0333118438720703,
        -0.34802985191345215,
        -0.3753032982349396,
        0.44401034712791443,
        0.22563254833221436,
        0.6082843542098999,
        -3.2965635909931734e-05,
        0.30184632539749146,
        -0.7344322204589844,
        0.10812242329120636,
        0.22938938438892365,
        -0.27531304955482483,
        0.9109618067741394,
        -0.1770736426115036,
        -0.04221101105213165,
        0.10363677889108658,
        -0.2865687310695648,
        0.6364538669586182,
        0.4967920184135437,
        0.332755982875824,
        -0.03387228399515152,
        0.17150822281837463,
        -0.8308537006378174,
        -1.1415935754776,
        0.5836321711540222,
        -0.0065232873894274235,
        -0.07621527463197708,
        -0.2566520571708679,
        -0.059924956411123276,
        -0.27352768182754517,
        0.017139621078968048,
        0.41970294713974,
        -0.2051202356815338,
        -0.5365784168243408,
        -0.14893905818462372,
        0.2904018759727478,
        0.11111239343881607,
        0.01576239988207817,
        -0.11765342950820923,
        -0.290170282125473,
        -1.552340030670166,
        0.20269083976745605,
        -0.4070775508880615,
        0.8403974771499634,
        -0.2375352531671524,
        -0.068565733730793,
        0.41879382729530334,
        -0.24154052138328552,
        -2.4150807857513428,
        0.6257373690605164,
        0.514183759689331,
        -0.663515567779541,
        -0.032134875655174255,
        -1.1432616710662842,
        -0.33417031168937683,
        -0.6876245141029358,
        -3.37359881401062,
        -2.471954584121704,
        -1.3989782333374023,
        0.1964547485113144,
        0.1415475755929947,
        -0.7481926083564758,
        -0.24765104055404663,
        0.5344219207763672,
        0.35524922609329224,
        0.05568709969520569,
        -0.3768894374370575,
        -0.17053470015525818,
        -0.05042405053973198,
        -1.2736210823059082,
        -0.22879987955093384,
        0.22670796513557434,
        -1.5276153087615967,
        0.19631260633468628,
        0.3189961612224579,
        0.3877479135990143,
        0.3434152901172638,
        -0.2018815279006958,
        -0.38766101002693176,
        0.04260909557342529,
        0.03596772253513336,
        -1.0335807800292969,
        0.04086063429713249,
        0.0593826062977314,
        0.03794875741004944,
        -1.8422660827636719,
        0.48436471819877625,
        -0.2698078453540802,
        -0.19540216028690338,
        -0.6525496244430542,
        0.06252788007259369,
        -0.2452680766582489,
        -0.1667751520872116,
        0.16511030495166779,
        -0.14535261690616608,
        0.09933005273342133,
        0.09488257765769958,
        -1.2697185277938843,
        0.01782098598778248,
        0.2354741245508194,
        -0.20130184292793274,
        -0.43657252192497253,
        -0.02496233768761158,
        -0.07779637724161148,
        -0.9881088137626648,
        0.11664394289255142,
        0.5480155348777771,
        0.12881408631801605,
        -0.021689552813768387,
        -0.07481767237186432,
        -0.4799059331417084,
        -0.34061363339424133,
        -0.24869082868099213,
        0.18081992864608765,
        0.6484197974205017,
        -0.7766372561454773,
        -0.10237928479909897,
        -0.48210713267326355,
        -1.114333987236023,
        0.31849947571754456,
        0.610014021396637,
        0.5854015946388245,
        0.45028892159461975,
        -0.3310253620147705,
        -1.0147109031677246,
        -0.8115972280502319,
        0.1844092309474945,
        -1.550154447555542,
        -0.9081735014915466,
        -0.37334373593330383,
        0.2457338273525238,
        -0.47347235679626465,
        -0.18901216983795166,
        -0.29163622856140137,
        -0.22133733332157135,
        0.8500140309333801,
        0.03573447838425636,
        0.4326518774032593,
        -1.2215332984924316,
        -0.7097233533859253,
        0.7025172114372253,
        -0.14658328890800476,
        -1.0457382202148438,
        -0.02874341979622841,
        0.10825396329164505,
        -1.3616533279418945,
        0.26403099298477173,
        -1.7637989521026611,
        -0.18880592286586761,
        -0.9341751933097839,
        -2.810589551925659,
        0.050507158041000366,
        -2.8654322624206543,
        -1.802925944328308,
        -1.1206787824630737,
        0.37256622314453125,
        -1.1387739181518555,
        -0.38389071822166443,
        -0.041580069810152054,
        -0.6761199235916138,
        0.4381532669067383,
        0.09201757609844208,
        -0.8433946967124939,
        0.3048831522464752,
        -0.2812359631061554,
        -0.0720030665397644,
        -0.2077302187681198,
        -0.41460099816322327,
        -1.2749944925308228,
        -0.2932281196117401,
        0.2926492691040039,
        -0.14639432728290558,
        -1.6131618022918701,
        -0.15670104324817657,
        -0.5470529794692993,
        0.044004637748003006,
        -0.684066891670227,
        0.13303415477275848,
        0.0008641518652439117,
        0.14342530071735382,
        0.08755100518465042,
        -0.695651113986969,
        0.18700672686100006,
        0.5004204511642456,
        -0.05823354423046112,
        0.25769537687301636,
        -0.5965388417243958,
        0.031519513577222824,
        -1.2302546501159668,
        -0.8703846335411072,
        -0.1300208866596222,
        0.3185223937034607,
        -0.8340394496917725,
        -0.5109905004501343,
        0.03455867990851402,
        0.35249021649360657,
        0.11730829626321793,
        0.5683808922767639,
        -0.10061836242675781,
        -0.18900831043720245,
        -1.8799726963043213,
        -0.280689537525177,
        -0.7392065525054932,
        0.3068805932998657,
        -0.3077045977115631,
        -0.10190822929143906,
        -2.006101369857788,
        -0.013199254870414734,
        0.16206462681293488,
        -0.4174020290374756,
        -0.21768277883529663,
        -0.10952345281839371,
        -0.10744799673557281,
        -0.09291846305131912,
        0.07944279164075851,
        0.28530433773994446,
        0.4381340742111206,
        0.2673790752887726,
        -0.4962397813796997,
        -0.5712505578994751,
        0.11705245822668076,
        -0.5855147838592529,
        -0.23287345468997955,
        0.2682795822620392,
        0.20413517951965332,
        -0.24685847759246826,
        0.08734095841646194,
        0.18155604600906372,
        -0.050703682005405426,
        -0.29398107528686523,
        -0.27351874113082886,
        -0.032817259430885315,
        -0.02240023761987686,
        0.431878924369812,
        -0.14637522399425507,
        -0.21946492791175842,
        -6.732941627502441,
        -0.1020875796675682,
        -1.7998895645141602,
        -0.17343981564044952,
        -0.08266753703355789,
        -1.4928838014602661,
        0.055430855602025986,
        0.5675463676452637,
        -0.0706944614648819,
        0.3928236663341522,
        0.05581169202923775,
        0.1348906308412552,
        0.015713220462203026,
        0.02299712970852852,
        0.4030556082725525,
        0.3273651599884033,
        0.22472791373729706,
        0.48306918144226074,
        -0.2574025094509125,
        -0.01093237567692995,
        -0.9062594175338745,
        -0.06012189760804176,
        -0.3244502544403076,
        0.24636958539485931,
        -0.07362332940101624,
        -0.44417259097099304,
        -0.0049301269464194775,
        0.5216692090034485,
        0.14529883861541748,
        0.1479777991771698,
        -0.053866662085056305,
        0.8417860269546509,
        -0.30257678031921387,
        -0.11351310461759567,
        0.4199759364128113,
        -0.13614416122436523,
        0.2992607057094574,
        -0.027020448818802834,
        0.9078162908554077,
        -1.1014267206192017,
        -0.12131813168525696,
        -0.7734944224357605,
        0.21500921249389648,
        -0.8112594485282898,
        0.2557762861251831,
        -0.42526689171791077,
        -1.8264541625976562,
        -0.2121037095785141,
        0.07676748931407928,
        -0.3530215620994568,
        -0.38429367542266846,
        -0.046389445662498474,
        -0.2267848253250122,
        0.08979154378175735,
        0.17052532732486725,
        -0.24156968295574188,
        -0.23240478336811066,
        -0.36677464842796326,
        -0.2540707588195801,
        -1.940614938735962,
        0.4076845049858093,
        -0.8316639065742493,
        0.15235963463783264,
        -0.1451796144247055,
        0.05692001432180405,
        -0.05768970400094986,
        0.33020809292793274,
        -0.11054185032844543,
        -0.30805909633636475,
        -0.9437123537063599,
        -0.44529595971107483,
        -0.07381235063076019,
        -0.018738003447651863,
        0.08638607710599899,
        0.35344886779785156,
        -0.27845630049705505,
        -0.07063028216362,
        -1.4805662631988525,
        0.02145831286907196,
        -0.8288365602493286,
        -1.1519370079040527,
        -0.27745455503463745,
        -0.23703043162822723,
        -0.08623354136943817,
        -0.6853749752044678,
        0.06071341037750244,
        -0.35513556003570557,
        -0.5265138149261475,
        -0.03726235032081604,
        0.24154773354530334,
        -0.08843307942152023,
        -0.3772563934326172,
        0.6028143763542175,
        0.24520523846149445,
        0.403435081243515,
        -1.6887173652648926,
        -0.2307954728603363,
        -0.18169157207012177,
        -0.7968051433563232,
        -0.12606170773506165,
        0.2870737314224243,
        -0.25606292486190796,
        -0.6598543524742126,
        -0.28568223118782043,
        -0.08643963932991028,
        -0.6417888402938843,
        0.09126920253038406,
        -1.2331734895706177,
        -0.736836314201355,
        -0.22413270175457,
        -0.4247399866580963,
        -3.380108594894409,
        0.10124774277210236,
        -0.022481825202703476,
        -0.14808344841003418,
        0.11321204900741577,
        -0.8650627732276917,
        -2.026721239089966,
        -0.4885830283164978,
        -0.2605952322483063,
        -0.18437643349170685,
        -5.436922073364258,
        -0.14466442167758942,
        -0.16487225890159607,
        -0.9296265244483948,
        0.05558173730969429,
        0.13850761950016022,
        -0.21615241467952728,
        0.03175348415970802,
        -0.021786024793982506,
        -1.3055005073547363,
        -0.08763059973716736,
        -0.7101190090179443,
        -0.05595909804105759,
        -0.9445622563362122,
        0.04259606450796127,
        -0.10882283747196198,
        -5.647439479827881,
        -0.9809226989746094,
        -0.33185693621635437,
        0.26877927780151367,
        -1.6237419843673706,
        -0.07007460296154022,
        0.23776747286319733,
        0.17819617688655853,
        -0.05801994726061821,
        -0.09474972635507584,
        -3.0704121589660645,
        -2.113208293914795,
        -0.8841410279273987,
        -0.05462849140167236,
        0.2870446443557739,
        -0.071318618953228,
        0.11757301539182663,
        -0.23835411667823792,
        -0.28947654366493225,
        -3.6023638248443604,
        0.057115133851766586,
        -0.5220984220504761,
        0.6714552640914917,
        0.1900481879711151,
        -0.22784456610679626,
        0.5645162463188171,
        -0.19175735116004944,
        0.18329469859600067,
        -0.3178565204143524,
        -0.4836731255054474,
        -2.1227543354034424,
        -0.16699950397014618,
        -0.7358800172805786,
        -0.7465069890022278,
        0.535038411617279,
        -1.5337928533554077,
        0.29078200459480286,
        -0.2738688290119171,
        0.5181898474693298,
        0.6849624514579773,
        0.13550817966461182,
        -0.05309281125664711,
        -0.2982875108718872,
        -0.2949187755584717,
        0.13347642123699188,
        -0.38451945781707764,
        0.3683823347091675,
        -0.07354382425546646,
        -0.08789053559303284,
        -0.18414586782455444,
        -0.2910822033882141,
        0.2424333393573761,
        0.6577532291412354,
        -0.5353084206581116,
        -0.5316048264503479,
        0.4818143844604492,
        -0.18690021336078644,
        0.8607070446014404,
        -0.020230786874890327,
        0.13007475435733795,
        -0.5111483335494995,
        0.02759568952023983,
        0.17642217874526978,
        0.07692989706993103,
        -0.6383776068687439,
        -0.28523150086402893,
        0.05545031651854515,
        0.20612801611423492,
        0.225079745054245,
        0.09455957263708115,
        -0.12635307013988495,
        -0.30856412649154663,
        0.21523047983646393,
        -0.008316781371831894,
        -0.6668692827224731,
        -0.42772191762924194,
        -1.9228627681732178,
        -0.3068910539150238,
        0.1627960354089737,
        -0.0009438927518203855,
        -1.210357666015625,
        0.12187793105840683,
        -0.07774317264556885,
        -3.063206195831299,
        0.12095730751752853,
        -0.11545439064502716,
        -0.07743445038795471,
        -0.04016176611185074,
        0.1024131327867508,
        -0.06247934326529503,
        -0.16442076861858368,
        -0.24385330080986023,
        -0.5518844723701477,
        -1.1946529150009155,
        0.4647388160228729,
        0.04903530701994896,
        -1.2868186235427856,
        -0.44931721687316895,
        -1.8013148307800293,
        -0.23803667724132538,
        -0.20353806018829346,
        0.8622370362281799,
        -1.9934673309326172,
        -0.9235846996307373,
        0.8630838394165039,
        0.2254210263490677,
        3.119093179702759,
        -0.2543317973613739,
        0.016663989052176476,
        -3.734687328338623,
        -0.2959762215614319,
        0.17430159449577332,
        1.0236306190490723,
        0.11220630258321762,
        -0.17478014528751373,
        -1.2907675504684448,
        0.8327144980430603,
        -0.8725301027297974,
        -1.332870364189148,
        -2.1456358432769775,
        -0.2249140590429306,
        0.809184730052948,
        -0.013722622767090797,
        0.3151511549949646,
        0.9437315464019775,
        -1.6657301187515259,
        -2.6416406631469727,
        -0.16784913837909698,
        0.1656976193189621,
        -0.039219293743371964,
        -0.914707362651825,
        0.03140641376376152,
        -0.16650192439556122,
        -1.0039699077606201,
        0.575383186340332,
        0.5883201956748962,
        0.0633862316608429,
        -0.42874330282211304,
        -0.08235949277877808,
        -1.4592642784118652,
        0.26305511593818665,
        0.07143136113882065,
        0.44721749424934387,
        0.1814906895160675,
        -0.1584600806236267,
        0.012673394754529,
        0.170257568359375,
        -1.6259078979492188,
        0.3875943422317505,
        0.02345852181315422,
        0.587563157081604,
        -0.46424293518066406,
        -0.010354061610996723,
        -0.6564580202102661,
        -0.22264480590820312,
        -0.4270191192626953,
        -0.2950678765773773,
        0.5792874097824097,
        -0.7342996001243591,
        0.09613727033138275,
        0.5397583842277527,
        0.2307450920343399,
        -0.007459248881787062,
        -0.46038922667503357,
        -0.08577965199947357,
        -0.6395837664604187,
        0.8571793437004089,
        -0.17453546822071075,
        0.6318632364273071,
        -0.19386368989944458,
        0.02315353788435459,
        0.07545001059770584,
        -0.20337358117103577,
        0.3780165910720825,
        -0.12833471596240997,
        -0.14318419992923737,
        0.10119760036468506,
        -0.19692282378673553,
        0.6952885985374451,
        0.26846978068351746,
        0.2841971814632416,
        -2.4738385677337646,
        -2.9824044704437256,
        -0.27769115567207336,
        -0.09818803519010544,
        0.09893190860748291,
        -0.20693404972553253,
        -0.5420439839363098,
        0.045873623341321945,
        -2.1964757442474365,
        0.4944758415222168,
        -0.10330382734537125,
        0.3455609083175659,
        -0.13407202064990997,
        -0.7203517556190491,
        0.29643404483795166,
        -0.6329768300056458,
        0.13902118802070618,
        0.020954914391040802,
        0.14591093361377716,
        0.6734045147895813,
        -0.005364477168768644,
        -0.34303614497184753,
        -0.8192145228385925,
        -2.1525840759277344,
        0.05024394020438194,
        0.062073078006505966,
        -0.11405868083238602,
        -0.8895666003227234,
        -0.19800527393817902,
        0.3003842830657959,
        0.13034753501415253,
        -0.013393287546932697,
        0.3442530333995819,
        0.31796038150787354,
        0.31404992938041687,
        0.1239645704627037,
        0.42004460096359253,
        -0.0344240702688694,
        0.3795360326766968,
        0.06796890497207642,
        0.13341961801052094,
        0.12896600365638733,
        -0.0746508538722992,
        -0.9086532592773438,
        -1.4700632095336914,
        -0.326389342546463,
        -0.36788761615753174,
        -1.746433138847351,
        -1.367794156074524,
        0.5354762673377991,
        -0.46794551610946655,
        -0.32372960448265076,
        -0.1828993260860443,
        0.05519299581646919,
        -1.2446396350860596,
        0.04027489200234413,
        -0.502372145652771,
        0.33279064297676086,
        -0.03027314692735672,
        -0.8759509325027466,
        -0.004020474851131439,
        0.1156957745552063,
        -1.1715145111083984,
        0.23404911160469055,
        -0.40593212842941284,
        -0.19860580563545227,
        -0.8575431704521179,
        -0.05198567733168602,
        0.022747645154595375,
        -0.10546190291643143,
        0.37137115001678467,
        -0.7933881878852844,
        0.01037150714546442,
        0.6747519969940186,
        -0.007449581287801266,
        -0.35521650314331055,
        0.26522207260131836,
        -1.9202767610549927,
        0.32187166810035706,
        -0.2393023818731308,
        0.39432406425476074,
        -0.1278083771467209,
        0.3336733281612396,
        0.5368099808692932,
        0.03332161903381348,
        -0.01727869361639023,
        -1.88441002368927,
        -2.0881848335266113,
        0.15605567395687103,
        0.16470742225646973,
        -0.34484151005744934,
        -0.6823086142539978,
        -0.03518965095281601,
        0.09560535103082657,
        -0.7577906250953674,
        0.3644958436489105,
        0.8335293531417847,
        -0.015126528218388557,
        0.2352081686258316,
        -0.05826342850923538,
        0.15301823616027832,
        0.039958059787750244,
        -2.0961430072784424,
        0.15503942966461182,
        0.329116553068161,
        -0.51496422290802,
        -0.05075725167989731,
        0.49051836133003235,
        0.05331302434206009,
        -0.4153381288051605,
        0.25320184230804443,
        -0.2347353994846344,
        -0.5750850439071655,
        0.6835216879844666,
        -1.0037057399749756,
        -0.5469184517860413,
        0.024563655257225037,
        0.029112594202160835,
        0.40009623765945435,
        -0.5391489863395691,
        0.5057334899902344,
        -0.5014568567276001,
        -0.04748274013400078,
        -0.3848348557949066,
        -0.28678375482559204,
        0.7608524560928345,
        -0.07720392942428589,
        0.08256030082702637,
        0.10563421994447708,
        -0.8731070756912231,
        0.1065472811460495,
        -0.1522229164838791,
        0.5172749757766724,
        -0.21208056807518005,
        -1.2933988571166992,
        -0.008178867399692535,
        -0.19469554722309113,
        -1.2597709894180298,
        -0.007600995246320963,
        0.4195691645145416,
        -0.721513569355011,
        0.32725951075553894,
        0.41633298993110657,
        -1.3580800294876099,
        0.22505107522010803,
        -0.3711480498313904,
        -6.748635292053223,
        -0.8106461763381958,
        0.0007018716423772275,
        -0.8302285075187683,
        -0.9949504733085632,
        -1.7003390789031982,
        -1.639631986618042,
        0.5316684246063232,
        -0.05320890620350838,
        0.3056337535381317,
        -0.03179524093866348,
        -0.13432595133781433,
        0.3317475914955139,
        0.08225739002227783,
        -0.3186715543270111,
        0.3130488991737366,
        0.1602618396282196,
        0.06579771637916565,
        0.3488641679286957,
        0.02892169915139675,
        0.3534427285194397,
        0.7810126543045044,
        0.2349821776151657,
        0.1338777244091034,
        -0.2275814414024353,
        -0.05838034674525261,
        0.16996344923973083,
        -0.3040744662284851,
        -0.5487992167472839,
        -0.3100554943084717,
        -0.1586848348379135,
        -0.4687277376651764,
        -0.04252943769097328,
        0.3198648691177368,
        -0.11762293428182602,
        -0.6449076533317566,
        -1.3645238876342773,
        -0.3966624438762665,
        0.21490518748760223,
        -0.5214084386825562,
        -0.10742833465337753,
        0.1620606929063797,
        -0.14012163877487183,
        0.01447612140327692,
        -0.09554880857467651,
        0.17353469133377075,
        0.2985810935497284,
        0.036701545119285583,
        -1.5640876293182373,
        -0.15456151962280273,
        -0.2514307200908661,
        0.03027704544365406,
        -1.044729232788086,
        -1.4542138576507568,
        -0.5494571924209595
      ],
      "bias": [
        -0.8203840255737305,
        -0.16450287401676178,
        0.19290803372859955,
        0.07034788280725479,
        0.22293047606945038,
        -0.6820265054702759,
        -0.23561206459999084,
        -0.8018506169319153,
        -0.20624461770057678,
        0.06388261914253235,
        0.2715507447719574,
        -0.4214799106121063,
        -0.3929767608642578,
        -0.6865972876548767,
        0.19083133339881897,
        -0.04256806895136833,
        0.05458461493253708,
        -0.3537556529045105,
        -0.11499682068824768,
        -0.13948330283164978,
        -0.19561487436294556,
        0.10728055983781815,
        -0.20073169469833374,
        -0.10297884792089462,
        0.15847636759281158,
        0.1541774570941925,
        -0.1719575822353363,
        -0.5394821763038635,
        -0.12509335577487946,
        0.4466668367385864,
        -0.17618106305599213,
        0.024405289441347122
      ]
    },
    {
      "type": "relu"
    },
    {
      "type": "dense",
      "shape": [
        32,
        1
      ],
      "weights": [
        0.2524046301841736,
        -0.02936720848083496,
        0.45644161105155945,
        -0.14777210354804993,
        0.1575518250465393,
        0.4274771213531494,
        0.5922387838363647,
        0.3071863651275635,
        0.1834268569946289,
        0.17823773622512817,
        -0.10261956602334976,
        0.0947592705488205,
        0.23119787871837616,
        1.022398591041565,
        0.8725066184997559,
        0.27242913842201233,
        -0.06443794071674347,
        -0.019078318029642105,
        -0.4085842967033386,
        0.01161061879247427,
        -0.10914473980665207,
        0.7203895449638367,
        -0.09162183851003647,
        0.11150241643190384,
        0.1799069344997406,
        0.5592312812805176,
        0.0014393208548426628,
        -0.2708016037940979,
        0.044130049645900726,
        0.25452789664268494,
        -0.23167327046394348,
        0.19991344213485718
      ],
      "bias": [
        -0.1258910894393921
      ]
    },
    {
      "type": "tanh"
    }
  ]
}